svm_type c_svc
kernel_type gkm_cnt
L 11
k 7
d 3
nr_class 2
total_sv 181
rho 0.0396833
label 1 -1
nr_sv 92 89
SV
0.9989757604913948 AGTCATGGAGAACAGGGGTTAGACTCAGCATAGAGGAAACAAGGCCAGGAGGCTGGGGCTGTGTTAGGGAAGCTACTGAAA
0.9983806834631985 CACTCAGCTCTGCTTGGCCTCTGGGAGAGGCTGGCTGCAAGGTCAAATGAATATGCAGATTGCCCGGCAAGGTGCTGCCTT
0.8856911707000049 GGCAGAGGTTATTTTCTTCTGCAGATGATTAACATAACAAAGAGCCTGACCCTGACTCAGGACAACCCTCGCTGTTGATTG
1 AGGTTGCTGAATATTTAATGCATGCACAGCATTCTGCTCAGTGAGGGGCCAAGTGAGGGTCAGGTTAGGGCCGCCTGCTGTT
1 AGGCAAGCAGTGCAGAAGGACAAGCCTGGGCTAAATGCATTTACATAGAAATTGGAACCTGGGTGGGAACAAGCATACCTT
1 GGACCATCTTTGAGGGTGGGGCCATTGGCTTTGACTCTCATTTACATAACATTAGGGAGGTAGCTTTGTGTCACCGGAATTT
0.9476915954792854 ATTTAATACCTTCCTGGACATGGTATTTACATTACAACAGGTGGGGAGGGCAGAGGTCACAGCCACCACTGCCTGGGAGCTG
0.9203147104350226 CTGGGGCGGCTTCACGGGACCACACAGGACAATACAGGGCGTAGTCTGACCTCTGCTGTTTCTTCCACAATATTCCAGCTG
0.8724180761412 TGCCTTTACAAGTCATCTGACACGCCTTCCTTGTGGCTTTCAGCATTCTTATTCTTCCTTTGTTCTATACTCTTGGCGGTT
0.7973461848276759 GGAAGAAAATGATGCTATTAGCAAAACATTTGCATGACAACAAAGAGGGGTGGGGTAAAGCACTCTTCAGTCTGTCAGATAA
1 CTGCTAATTAACGTTTGTAAAGAAGGTCAAAGGGACAAAAGCCACAAAAGCAGGGGGTAGGGGAGAGGAGACTGGGCCTGCA
0.8668465496684721 CTGCTCAAAAGTCCTATCATTGTAACCCAGCTCGGGGGCAGGGCAGGCCCAAACCACTATTTTGCATATGGATTAACTGGCT
1 TGAGCCCAGAGTGCTGTACATAAAGGTCACTGTAAGCGAAGCAGACGCTGTGCATCACAATGCTCAGCCTATCGAGGTACTT
1 GACCTCCCGTTCTGTGCTTGGACAATGGGGTATCCATGGAAACAGCACTGCAGAGCACCGCCTGACCGGGTTCAGCCCCGGG
0.9164901390948467 GTTGGTATGGCTTCCTCTGGGTGTGCCTTTTGGGCCAAGGTCACACTTCCTACCCAGGCTTTGTTTCCAGGCTCTGCTCATT
0.9731961991733552 TGCCACTCTCTGCACACGGCAGGGTGTGGAACCTCGACATGACCTCCAGCTGTTCTTTGTAAGGGAAATGGCTTTCTTCTC
0.8459694366022465 TTGTGGTTTGAGGAACTTGGGCCTTTGTTATGTATTTTTTTTCTCCTTGATCCGCCACGCCCCCAACCACGTGACCCAGAGA
0.8909590872623948 GGTCCTTTCTACACTAATTTCTTTTATATGCTGATTTTGACCTCCCTCCCCACCCTATTCTCTTGCAGCGATGGCCTGAGC
1 CTCCAGCTTGACCCATACAATAGGAAGGTCAGCACCCCGCCCAGCACTGGTATGTTTTGTTAGGAGAGTCACGGGTATTTTC
1 TGCTGCGTTTAGGGAGAGCGAGGGTGGAGCCCAGATTATTGACCTGTATGGAGGTGCAAATGAGGGATGCTCAAGAGAGAA
0.6790067679155058 CACAGGAAATCTCTTCAAGTTCAAGGTTTTAAAAGGAACAATGGAGTCTGTTCATTTCTCTTGCAAATCGAGCCTGTGCGT
0.9624354615624939 GCGGCTCTCTTGACTTGCTAACAGCCCCTTTGTATATGGAAATGGAGTGGGCGGGGCACTGAGTTCCCTCCGGGCTGCTCAA
0.8460992282118306 AGACCTGTGCAGGCAACAGGGTGTGGCTGACTCTTGGGTTCACCTCTGACCTTGCCTCTTTGTCCCGTGGGTCTAGCCTGC
0.9967062119882475 TTATTCATATACAAATGCTAATTCATATATAAAAGACAGCACCACCCAATTCCTGAACACCAAGGTCATTTTTGGTGGGTC
0.9744828559590476 ACTGCCTGGCTTGGTCAGTATGCAAACCCTGAAGGTCATGACCTCATTCTCAGAAGGAACACCCAACAATCGATCAACCTTC
0.8986718653615374 TTGGGTAGAACGATGAAGCAAGTGACCTTGAAACCCTGGGGGCAGGGCTTTGCCCATTGTGTAGCAGCTGTTTCATTCACCC
0.7583016061936881 TCATTGAATAAGGAAAAAACAAAGCGAAATGGCATTGGGTCAAGGGCAATACAGTTCAAACCGCCCAGATTGGGCTGGAGAG
0.7502426625835675 CTGTCTCTGGCTGGATCTCAATTCACTTTTGTCTTGCAAATGAAACACTGGGTGCGGCTGCCTCTTACAGTTCCATCAAGAA
0.9780054013209625 CCAATTCTATATTTAGCCTCAAGGTTATCCCTGAGGCGGGGCCAGTTTTAGGCATTAATGCTAAAGGCTTGCAGCCAAGCAG
0.8914950355892057 GAAGCATAGCTCTTTCAGCACTTTGTGAAGGCCGGAATGGGCGTGGCGTCGTGGATGGAGGTCATACAGAGCGGCAGGGAAG
1 TCAAAGGAAACCGGAGTGGATTGCAGATGTGAGGGGTTAGAGGTCAAGTAGAGGCCACAGCCCTCCATTCACTATAGGAAC
0.7745181220730341 CCATTTTCATAAAACCCTGGGCCACGCCCAGTGGCCTTCAGTCAATACAGAGCGAACAAAGAAGTCAAACTGCTCCCAGGG
0.7018935733925761 CATGCTGGCTTCTCTGTTTCCTTAGCTGTCCTTTATTCACTTTCTTGTGATGCAAATTTACACTCATTAATCATTCGGTCTA
0.893655728924618 AAGTGCTCTCACTGAGGCATGCCCAGATTTGCAATTCAATGGCATGGGGGAGGGGGGGCGACTCAGCTGAAGCTAAATGCC
0.853137649691232 CCCGGGGAAAGGCTTTCAAACCTATTGTTGAGCAGTAACCTCAAGGGCAGGAGGGTGGAGGCTAAGAGTCAAGACTTCCCA
0.8247656571151164 CCTGCAGGCGCCCTTGTACTGGATTTGCAAGACAAAAACCTTCAAACTGGCTGAAGGACATCTTAAATCTCTTCAAAGGTT
0.9717559407820772 AGGCTCAGGAAAGGCCTTGTTATGCAAACGAGTCCAAAAGCCCACACTCCCTGCCACAAAGCTCCATCTTCTATGCACCTGC
1 GTGTTAAGTCAGAACGGCGATCTCCATGACGACGGAGGGGAGCGGCTACCAAAATGACCTTCCAAAGGACGGCCACCTCTG
0.7833737732290211 GCAGTCTGCTCCAAGAGGAGTCAGTGGGTGTGGCTCACAGCATATGCATTACAAAGCCCTGGTAACTTGGAGACACAGGAG
1 AGCAGGCACCCAGCAGCAACAAAAAGACTCCCAAGGTCAGCAGCGCCTGGCGGGGAACTCCGCCCCTTGCCTGGCTGCCCA
0.7093051944231245 CGGGTTGTCTCCTTTTGTTATGGGAATTGAGCCCAGCTGGAGGTCAATCTTGGTGAATAAAACATTAGCATAAACTCTCAG
0.9337392592447861 GCTGCTTTGAGGACAGAGAACAATGGGCCTCCAACACACAGAGGTGGGGCTTGATGTCAAGGTCAGAGGCCCAGCGGACAGG
1 TCCTCTTGAAGACACAATGAGCCCTGATGAGCTGATGGGTGGAGACTAGGCACAGACACATTCCAAGGCCAGTGTGCAAACA
0.8591607612536378 TAGCTGGCAGTCTCCGGAGGTCAGGAGCCCAGCTGCAAGTGCAAATTGGTCTTGGGAAAGGGTGTGGCTTCCAGTCTCTGC
0.8498080931401588 TTAGATTGCTATGTCCTTTTGATTCTAAGGCTTTTAAAAGACAATAGGTTCTTAGTTTACCACAGGCGTGGTAACTAAGTTG
0.6875033107228155 AACTAATCACACAGGCTCGCCTCGTGAATATGCATTACAATGGAAGTCAAGGCCAAAACCAACTGTCACCATACTTCCTGT
1 TCTTTTCTGATTCACAAATTCACCTTGGAAGCAAATCGTTCTTCAGATCCACCCTTATGTGCATATTCTGACCTGAGGTGTT
0.8866151494996654 GTGAAGATTAAACCCAAAGTAAAGGTCAAACCTTTACATTGCAAAGCCAAGCACAAGGCGTGGCCCCAATGATGTCATCACC
0.6577403267098605 GCAGACCCTGGGAATGTCTGAAGGTCAAGTTCCAGTCACACCCTTTTCATGGATTTGTTTTGTTCTTTTATTGTACACATT
0.7905492870604232 CTAATGCTTCTTTTCTTTTTCCTTTTTGCCCGCTCCCTGTTTAGCATCACAATGGGGCTGCCTCTGAGCCCTGCAGCTGACT
0.8999583141149388 ATTCACTAGATTTTCATTCAAATGCCTGGATCTTCATTGTTATTAGTGAGAGAGCAAGCTGAAGGTCACATGCAGTTAGCAG
1 CTAGGGAACACTTCCAACCCCTTTGTCTTCTGTGACCTTGGCATTTCCGAGATGTCCCCACCCTGTCTCTTTTTATCAATC
0.8663296943499201 CCCTTGTCTTGTTTCCTAGTTGAGAGGCGTGTCCCATCACCAAGGTTGCATGACAAAAGACAACAAGAAAAGTCTAACAGGT
1 AGCCACATTCAGGTAGAATTTTCAAGGTCACCTGAATGATGTTCACGCCCATCATCTGCATAGCAGCTGCTGCTGTATCTA
0.9344098476032883 CTTCCCGGAGAAGGATCTGGAAAGCCAGGTTTGCATAACAATATCTGCCCTTGCCATGAGCCTTCCTTTCTGCTGAGCAGA
0.957351503020757 AGACAAGGATGCCACGAACTGGGTGTGTCACTTTGGCCATTGTCTCCTCACATCTGACCTGGAGCTGCCCATGGATATGCGC
0.8672676989851541 GCCTGACAAACAACCCTTCCCTCACTGAAGGTCAAATTAGCATCTGGTAGGGCTGAGCTAAATTATCCCTCTTGCTTCTCTG
0.9142917439968423 TTCAGTGCTTAGGGATGTTTTGCATATGAAAGGAACAACAGCAGCTTTGTCTCAGAGGGGCAGGGTTCTAGCTTTGCTCCAG
1 CTGTTACCCAGGAAGTTGTTTAGCATAGTCCCAGGACTCTGCTAAGGGCAAGTACTGTCATTGTTATTTATTTAGCCCCATT
0.8944663075288544 TACATTCAAAACCAGATGCCTTCATTAAGGTCACCCCTTTCCCTCATTGTAATGCAAATTGCCAGAACTAAGGCATCTAAAG
1 CTGTGGAATGAATAGCCTTGCTCATGCTAAGCAATGCTCGACCTTGAGCGCTCCCCTCCCACAGCTGCCTTATTTGTTGAGT
1 TCCTTTCCAAGTGACCTTCACATTTGGCTGTTGACCCAAGGGTGTGACATGTCTCTTCCAGGAGACAATGGCTCCCCTGTG
1 AAAAGGAATAGCTACAGCCTTTGTGTGGAAGGGTGTGTCTTTTGGCAGGGTCTGCTGATGCAGACAGACTGGCTGGTGATT
1 TCTCGGCTGGTCTTTTATTCGCCTTTGTTTAAGACTACTCCACCCAGCCATCTGTCCTTTCCCAGACTTGTGAAGGACGAA
1 GGGAAGGGAAGGGTCTTTGTTCCCCCTCAGACCGTGACTACCAGACCCTGAGCATCCTCTGTGTTTCCATCCCCATGGTCCA
1 CCTCTGCAGCAGACAGTGACCTTGCTGAGGCCTGTCACGGGGACAATGGCAGGAAGCACCCCACCCAGCCTGAGCCTACAC
1 TCTGGAAACCAAAGGTATTCAAATGAAAAGACGTGGCAGGTGGGCCGGAAGGGTCTGTGACCTTGTGGCTGGGAGCTGCTA
0.9965854304963289 CAAGCTGGGAGGTGAAGACAAAGACCAGAGGTTGTGACCTCCACGCAGATGCTATGGTATGCACATGTCTGCACTTAGACA
0.824549725214942 CAGGGCTTGATGCTACAAGCTGGGATTTGCATCTCAAAAGAAAGGGCACATTTTTGTTTTGTATTTCTCTGGTTCTTCTGG
1 CCCAGCTCACCTCTGAGTGACCTTGGTTACTTGATTTACATCTTTGCTTATCAGTAAAACAAAGGCCTAGTTCCTTTCCGG
0.9406223564145612 ATAGCTCACAGGCTGTAGTCCAAGGTCAAGACAGCAGGCATACCAGGGTGTGTCAGATGCAAAAGTCCAGCCTCCCTCTGAG
0.8050938134054514 GGAGAACAACAGAAGGCGTGGTACACACAAACACCTTTTCCCAAGGACAACAGCAAAGAGAAAGAAAGACTTTTTTTTTTT
0.9584740853008888 GCTTGGAGTGCAGTGCTAGCAAATGCTAACATGCAGCAGGAGTTCAAGGGCAGGCCGGGGGAGAGTATAAGGAAGTATTAGG
0.7103037482869937 CCATTTGGGAACAAGGCATGCATATTCCAAGGGCCAGATTTCAAAGTCAAATTACAGCTCCACCCATTCTCTGTACCCTGG
0.9519111011853688 CACTAGGAATCCTGAGGGGGGAGGGGCTGCCTTGGTGAAGGTCAGGCTGACATAAGAACAAAGAGGGGAACTGCTTGTCTT
1 GCAGGGCTCCCGGCCTCAACCCCCACAGCCATCCTTTTGTCAGTCACAGTGGGTGTCCTTCATCCAGAGCTTTCGGGAACTC
0.9871447206201627 ACTGTTGTCAGCAGTTAACAATGGAATAGATGGAGACACACCTTAATGCAATGTGGATGGAGGTCACCTCTATGTCAGCAC
0.912953953181746 GTTGGGTTTAGGTGAGGTTTGAAAGGTCGCTTAGAAATGTAAATGAGATCACTGGGTGTTTCCTGGCCTGCAGGGTTACAG
1 ACTCATTCCTGGGATCCCCTCCCCCCCAAGGGCCAAGGCTCCCTTTTGTTCTCATCCCGTGAAGGTGAAACCTGGCCTGCT
1 AGCATCTTACTTTCTAGGCCACACCCTTTCTCATTAGCATTCCCAGCATCCTCTTCCTGGCCTTCCATTCAGTTCTTGCACG
1 CAGGAAGGGCTGTGCTTGTAAATTTGCATATCTGCAGTTTTTGTCTGTGCCCATGTCCTTGAATGTGACCCCATGCATACTA
0.9654582830507935 AAATCTGGGGGCTCTGTCTTTTCCACCACTCCACCCACCATTAGCATCACAATGACGTCTCTCCAGCAGGGGGAGTGAGGT
0.9780434823056081 AATTGCTAATGGACAGAGCAAACAAAGTCCCGTGCATAGGGCGGGGCCGATGGGTTTGCAGATTACCGGTGGAAGAGGTGAA
0.8745304174214605 CTAGCCTCCTTTCCTCAGCCCCACCCTGCTATTGACATCAAGCTCAAGGATCCCTAAGACAAAGCAGGGCCGCTGTGAGCC
0.8263519821242706 GGCTTTGGGCTAGAGTTTGGGTGTGGCTTCCTCCCCCATTGTGATTGAATTTGATTTGACTTTGGGCAAAAGGCTGCTTTCC
0.8869134064791968 CTGAAAACCTTTCATAAGGACACACCCAGGGGAAACCATTTGCATTTTGATGACATCCTTTGTCCCGAGTCTTACTTCCAA
1 TCGTTATTCAAACTGCAGGCCCACACCCATAGATGCCTTTGTAGGGACAGCAAATCACCCTGGGGCACTCCAGGGTGCCCT
0.9929740118275981 CACCTTGCTACCACCTGTCTGTTGCCACTCCTATTGACAAAGAATAAAGAGAATGGTAATGGTTCAGGAAGTCACTAAAGAA
1 GCGAGCCTCCCATTGGAGCCCCGGGTGGGAACCCATTTCAAATGCAGATGTTCTCTTTGTCTGCCTGCGAGTTTGCCCCTCT
0.9093899829481108 TGGAGCCTGGGAATGTCCCCAAGGGCAAGAGAAAGTCACTCAACAAAAGAACGAAAACCCACCCAGAGGGGTTGACTCTCG
0.9196864945006205 GGCTGAAATGCAAGAGAGATTTGAATGGCAAAAAGGTCATTCTCTTGCCGTACCCTGGCGGGGTCGGAAGCCTGTGAGACA
0.7573503176301911 TCTAAGGCCTTTTCTACTCTGCTGATTGTTTAGCATTACAATGGTGGGGATGGGCAAGGCATCTGTGAGAGATCTGCAGTCA
-0.9285621056553951 CCAGCCCTCAACAGAGCAGCTCTGCATCTCCAGCAGATGGGGACAAAGCGCACATCCAGGTCAGAGGCAAGGGCTTCCTGG
-1 AGGGGGCCAAGGAAGAAGAAAACAATTTTGCATCCCTCATTGTGGCATCTTACCTTCACTGGCTTGAGGGTGGCTGAGAAGG
-1 AGCTGCGACCAGGCTGCTGCCGCTCCCTGCAGCCGCTCTGCAGAGCAAGGTCTCGAATCTGCAAAAACCCAGACAGCAGGT
-1 GGCTGTTTTGGTTCCCCTGGGGTGTGTGTTTGCCCAAGGTTGAATGTCTAGGCTGATGTAAATTCACATGAGTCTTTGAGG
-0.9773813682626595 CCCCCCATCTCCTTTCCAAGTTTTGTCTCTTCTAAGGGTATGTGTCCTTTGCTTTACCCCAGCCTTAGAGCTTAAAGTCACA
-1 CTGTCCACACTTATAGTCTTTGGGTTGGGTTGCTAGGCAGATATGACCCTGGCTTGCAAATAAGCTCGTGGCTTTTACCAG
-0.9123137279428976 GAATTGGTAAGGCCTTTGCCCTTCAGACTTAGGGAGGGGAAGAGCTGAGGGCCTCACATTCTTTGTCTAGGGGGTAAATGGG
-1 CGTCAGCCCATTACAGGCATTTCATGGAAATGGGGCTGCCCTCGCTGAGACCCTCACCCCTCGCTGAGACCCTCACCACTG
-1 GAGTAAGTACTGGGGATGAGTCAAATCCATTGTGATTAGCATTGGAGCTGACCTTCATGTCCTGTTCCCAGCACTGCCCCAT
-1 AAGAACCAAGTAGTTACAGAGTTAATGCAGGTGCACTCCCCAGCCACTTTTAAGGTCACACTAAGTCATACTACCCCACAG
-0.7345373652919861 CGTATCCAGATCTGGGAATGGGGAGGATCTGACAAGGTCTATGCACCCTGTTCAGGACAAAGGCAATTGTCTGTAGGGAGTT
-0.9697959683011664 GCCATGGGGTGCCTGAGTGCCTGGGCGGGGCCAGCTTCTAGGGCACTCTGGGTACTTTGTAAACCCCACTGCTGTTCCCAGG
-1 TCCCTTGCCGGGGTCTTGAGCCTCAGCATCCCTGCACCCTCCTCCCGGCCCTGTCACCTTGGCGGGCTGACCCATGGCTCCC
-0.8494720742431854 AGGAACGCTGCAGGATGGCCTCAGCATGGGGAGACAGCCCCTGCCTCCCTAAATGAGCCCTTGGTGAGGACGGGCCAACTGC
-1 GCTGAGTGTGGAGGAGGCTCTGCATCCCCCTCCTTAGGCACTGGCCTTGGTCCTGAGGCCACACCCAATTCCTGATGGGCCT
-1 CCAGGAGAAAGCACCATGACCTTTCTGAACACCCCTTTGTCATGGCAAGCACGTGGAGGGGTGTGACCTCATAGCTGGTATC
-1 CATAAGGCAGCCAATGGAAAAATTCATATATTCAGCAGCCAATCCCCCTGCGGCGTTTTGTGTCTTTGTCCAACAGGAAAGT
-0.9623043679873915 CCACACTTACGGATGCTCACTGACCTTGTTTTTCCTAGGCTATGCATGTAGCTCTCTTTCTTCACGCCACAGGTCTCAGGG
-0.9286366044836076 CGTGACTGTTCCTTGTCTTCCCCAAGGGCTCTGGGCTCCTTTGTGTGGAATTTCCCCAGCCTGGCATACACCAGGGGCTTT
-0.8710427368350708 CCTAGGTTTCACCTGCCGGCCACACCTCTCCTGGACACAGCTTTGTCTCTTGGAACCAAGGTTAGCAGTCCTGGCTCACTT
-1 CAGGTGGCAGTCCAGTACAATGAGAGACACTACCATTGGGTGGGAGCTAGGTTCCGATTCCTTTCCATTTGGGCCATGAGGG
-0.8241160246595189 TCTGAGTTTCGGGAGGATGGAAACGGGAAGAGACAAAGATGCTGCCGTTGGCTGTAGGGCTGTGGTGTGAAGGGGCTTTCT
-0.9800945724633457 CATCTACTGGGACAGTCAAGGTCACTCTCTGTTCAGCTTTGTGATCACCCACCTGGTAGGGTGGGTCTGCACAGCCTGTGT
-1 CAGTAAACCCACGGTCCCACCTCGCCTTCCCGTGCCAATGTTAATTCCCCAGAAAGACTTAGAACAAAAGACCGGATGTGTG
-0.8821146204224611 GAGCCTTCAGAATCTCCCACCACAGTGCCCCTCCCTGTGTCTGCATGCCACCTTGCCAGCACTAGTGCTCTCTCTCAGCAG
-1 CTGTTCAGGACACACCGTATGGGCTGGGAACCAGCACCATGGTACAATGGACTTGGTAGGTCAGTCAGGTTAAACCACAGCA
-0.9036850235379422 GAGACTCACGTCCTACAGACAAAGCCTCCAGAAACTGCTAGCTGTGTCCTTCTCCAGGGCCACCCCTCAGTGGTGCCACCC
-1 AGGCTCTAGCATGAGGGAAAATCAACAAAGAGCCATTCTAGGGCATTTCCAACCCCACCTAAGGCAAAGCTCTGAGCTATAG
-1 GCTTACAGTGGAAACTCTGGATGGGGTTCATGCTGAGGGCCGCCGAGCCGACTGCTGACCTCCAGTCCCCTCGAACGAACG
-1 GAGGTCCTGTCTTCACAAACCAGCATGCTCATCTCAAGGTCAAGCCCTCGGGTGTCTCCTCAGTAAAACAGTGAGCTGTCT
-1 AATGCTTTGATAAAAAGACAAAGGCGCTTAGAGTTAGCATAGATGCACGAGATCTCATGCCCTTAACCTGGTATCAGAGGA
-0.9339882536747008 TACAGTCTGGAAGACACTGCCCTAGGGGTCTATTGATCAATTGCATCTGAGAGTTTGGGGTGGTGGTGGTGGTGGTAAGAGA
-0.9583482362423792 CTCTATGACTTCACTCGGTTTAGGGAGGCGCTGTCCTAGGTGGCTACCAGAAGCATTGTGTGATTAATCAGCAGGTTTGAA
-0.9289866650790792 TTTAGAGCGCTAAGATCCAGGTGACCTTGGTTCCACAGCCCTGTCAGTCCTGGCCCTTTGTCCCCAGCATTCCAGATACCCT
-1 CTGGCACATCAAAGTTCGCACGACCACGCCCAGCTTTGTCACCCAGGAACAGAAAGGTCACGTTCACACATGGGTCAAAAG
-0.9083347777350462 TAGGGGGCAGCAGAGGGAGGGGAGGTCTCCACAGACCTTTAGGGACTAGAAGAACAAGATAAGAAAGACAGCATAGACTTA
-1 TTACAGCCTGTGACTCTAGTTTCTCACCCTTTTGTTGCAAGGTGAGGGTGGATCATCAGACCATCCACAAACTTCATGGAC
-0.9291392280504108 ACGAGACACTCTAGCCAGCCTCCCCTCCCTTTCTGAACTAAGCCCTTGAGCCAGTACCTGCATGCCCCGTGGCATGGCAGCC
-1 AGGACTTGAGTGTCTGAAGCCCCTGAAGGTCACAAACACTGCAAATGTCACAGCACTCCCACATCAACTATACATCAACAGA
-0.9642603894870463 GAAAGCACCAGCCAGCCTGAGGGGCTGCCATTGTGGTGACCTTGGAGACCAACCCTAGCCAGCTTCTGCCAGGGCTTCTGG
-0.8606687810300735 GTCTGAGACCCTCCAAGGGATGCAAGGTTTCTCTCCTTGGCGCAAACCCAGTCTCTGCTTTGTGTTCCCAGCATGGTGTACA
-0.8916769521168442 TTTCGGGCGGTCTCGGCTTTCTACAGAGGGCACTCTATTACCATATACCAGTCTTTGTTGAAAGATGCTCACTTTCCTAAA
-0.9055640928857084 CTGCACAGCCTTCCAGAGGATTATGCCAATGAACGAGGGTCCTTTGTCAGAAGTCCCTCCCCATTCACTCCCAAAGCTGTTT
-0.9420918373565407 GATTCTGGGGAGCTGGTGCAAGGGTGGGTGAAGAAAGCCAAGGAACAATGGGGCGTTAGCATAGAAGAAAAAGGCACCTCTG
-1 GAGTAATTAGATATTATTTGCATATCAGACAGTTCTTTGTAAGCCTCAAAGCACATTGCTGACCTATAGCTGTCTGCTGGCT
-1 CATCTAAGGTGCCCACCCAGGTGCCACCTGGATGGCCATCTGCAAGTAGGGCTCTTGCTATAGTAAAAGGGCAGAATGACC
-0.9341618665553258 AGATGTCTTGAGGATGCCACCTCTCTTTTGTCTGACCCTCATGGTTTCTGCCACAGCCCTCTAATGACCCACTCTAATGGC
-0.8544605956689524 CCCTGGCACTGAGACTGACAGACAAAGCTGTCAGCGGACTAGGGAGGGACAGCTTCACCTAGACTTGAGATATCGATGTAAT
-1 AATATAGGACAATCCTTTGTGAAAGGCAGCGCTGGGTTGATGGAAATGAAGTTGCAAGTGCTGACCTTGAATTTTCTGGTAA
-1 CTGCAGGGCTCCCGTTCCCAGTCTGGTTTCCATTCGAGCCCCGCCCCCTTCCCCTTGCCTCTCTGGGACTGTGAATCAATCC
-1 GATCCTTAATGGAAGGTGTGATGAGCATAATTGCCCTTCTCAGACGCAGCCCCTGACACGCCCTACTCCGGCAGTTCTGATG
-1 CGAGCCCTTTCCTGGAGACTTCAATGCACAGCCATTGTCTCTACTGAGCTGGGTGCGGATCCCAGCAAAGCCAGTTGGTTC
-0.8810941412404677 TGAGGCCCGGACTGTGCGCCTCGGCCACGCGCGGGAAAGGTCATCGGCAGAGACAAAACGCACTTAGGCACCTGGACAGAT
-0.9911471895141477 TATCTCAACTGCCAGGAACTAAGGGTGTGGAGGAAGTGGTCAGATGCAGAGCAAAGGACAGGAGACCAAATTCCTGCCAGG
-0.8689242224178139 GCTCTCTGACTTTAATCTACCACCCTTCGAGGACAGCATTGTTGATAAATGCAGAAGGATACTCGGCAGATACTCCGTTGG
-0.9414956850940573 GGTCTTCTCTGGCGTCACTGGGGTGTGGTGGGCATCAGAAGGTCACCGATGCTGTCATTGTCTTCTGGTCTCTAGGGACAT
-1 TCTGACCGCATTTGCTTTTCCATTTTAGAGCCACTGGAACACCCGCTAATCAGCAGCCCTTCTTTCTTCTCCAAGTATGCGC
-1 TGGCCCGGAAGGTGCAAGACAAGGTGAGGCCAGACCCTTTCGCGTGGCTAAAGCTCACTTGCATGCTCCCAATCTGGGGCT
-0.9351033820151644 GGGCAGAGTGGAAAGACGGAAATGGGTGGCGGAGACTGGGAATAAATGTCAGATGCAGAGCGGGGATCGGTAGAAAGAACCC
-1 TGCGCCACCGCCTGGCAGAAAGGCACATTTTGTTGCCTTTCCAAACCCTCACCTTTTGGTGGTACTTGGCACGTGTAAGTCA
-0.979019301572594 CAGCCAAAGGCAATTATAATGTGCATGACTAACATGAGACTCTACCCTTGGGAAGTCCACAGCCATAATCCCACCAGCGCC
-0.9329589139772111 GTGGCTGCCAAGCAAAGGAGCCAATGAGCTTCAGAGTATTGTTTAGGCAGGGCTTGGCTGCTGTCCAGCTCTGAAAGAAGG
-1 AATCTGACTTTATTATGCCTTTGATGTTAAGTTAAATGCAGATAAGCACGCTGCCTCTGTCTTTGTTGGGGGCTCAGTGCA
-1 CGGGTTCTGCTCAAGTGTGCACACAAGGGCACACGTGCATATTCTGCATTCAGACCCAGCCTTTGCTATGGTCTGAGTTCTA
-0.9578228494239684 TGGGCTTCTTGCAAACCCACATCTCCTCCCAAGGCCCTGCAAGGTGCCTTTGATATGCAGATCCCCTGGTTATTCACCTGTG
-0.9866821968783498 CTTCGGCCAGGAGCACCTTTGTGCTAATGAAACGGTGTGGCGAGGGTTTCTGGACAGGTGACCCTGACATCTTTCCCACCG
-0.829941747083551 GGCTTCAGAGCCTGTCTCAAGGCTCTGAAGGACACCAGGACAAAGGATACTGCGCCCTCTGGTGTTAGATTCATATCGGAT
-1 AGGGGTTAGGGATAGTGGCGGTGATATCAAGGTCAATGCTAAGCCTTTAACAATGAAGACTAGGAAGACTGCTCAGAGGGG
-0.7906263151934986 AATCCCATGCCGAGGGCGTGGCTCCCTTCCTAGCCAAGGGCTCCCACTCTCCCCATTCCTCCCATTGTGGAAATGAGGCCC
-0.8173937073890311 AGGTCAGACACAACTGCAAGGTGGCAGAAAGGTCTCAACCTGCATACTGGACAGCAACCACACAATGGACAGATGATACTGG
-0.6781792007328692 AGGTACCAGGGAGCCAAGGCCACCGAAGTGGGAGAGATGGGTGGGTGACATCCCACTAGAAGCTCTGCATTAGGCTAGGCTC
-1 ATTGAACACCTAGGTGCCATTAGTGTGCTTTGTAATGCAGAGTCAGGGATACACCCTGGCTTCTTCTGGGCCTTGTAGGCT
-0.864556042680909 CATTGAAAGGCTGCAGGCTCATGCTGATGGAAGTGCTGTTGATCACCCACCCTGAGCTTTGTATGGGGAACTGGGGAGACAT
-1 CATGCAAGCAGTCTGAGCAATCTGTCCCCCCTCCCTCCATTTTGTCCGATGCAATTACCCCATTACATATCAGTCACTTAA
-0.9564367293043697 AGGCAGTCCCAGGCGTATTAATGCAAGGAGTGTCCTTGGGATACCTCCTAGGTACTGCGCCCTTTTGAAAGGTCTCAGAAT
-1 GAACAGAGGGAGCTTCTATTCATTTGCATAAAGAATGACACCTCTAAGGTCAATCACTCCCTAGGTGCTCACAACTAGAGA
-0.8784718011279933 GCACCCAGACATCTGAGTCCTTCAAGGTCACTGGACATGCACCCACCCACCTCATGCAGACCCAGTCTCCCTGTCAGAGAA
-1 GAGTGGGTCCCAAACCAGATGTCTGGCTTTGTCATCTACATTCAACTAGCAAGGTCAGGCCTTGTTCCTGACAATTCTGTT
-0.8944479451091322 CATAGGTACCCAGAGAATGGAAAGCTCTGCCTAGGTGTCTTTGTCTCTTTCCGCCTTTGCCCTTGGTTTCCCAGGCTCAGG
-0.9288120014230145 GAAGAGCTGTGGGAGTCAGCAAGGACGTTCCCATACCACTCCCATGCGCCCCAGATGCCTTTGTCAGGCCATCTGCTCACCT
-0.9557053594605506 AGGGAACCTGTCTCAAGTGTGCGAGGGGCAGGAAGGGGACATCTGAATACACATCGGAGGGCAAGTGATAGAAATAGGGGTC
-1 TGCCTGCCTAGATTCCCTAACCTTGATTACTTCTCTTAGCACCCATTTGCACGCTATCTTTTGTCATTAAAATATCAAATT
-0.8632911238449384 TATAGTTATGAGCCACACTGATCTTGAGCTTAGGGAGTGTCTTCCCCTCATGAAAAGCTCAGCATAGCTAGCTGTTTAAGGA
-0.8908038067225965 TTGTTACACTGGGATGGAAAGAAGATGGGGTAGTAAAATGGGAGAGGCACCCCAGTCACCACCATTGTTTGCAGTCATTGA
-0.9876427881624423 CTGTGTGTGCCTGGGACTGCAAGGCCATGGGATCTCCCCTTTGTCCCTGCTTCAACTCCCAGCCCCTGGCCCTAAGCACAAG
-1 TCACAGAACTGAGAGCACAGAAAAGAGATGCTAACCAGGAGTGGTCCCAAGCTCATCCTGGAATAGAATAACTCATGCATA
-0.9418348190436944 TCCCACCTGCAAACTCCCTTCCTAGACAATACACCTGCATCCAGCTTTTGGGCCACCCTCATCTGCCAAGAGCAGGCCAGG
-1 ACTTCGGAGTGACTGATACCCAAGGTCATGTGCTTGCAAATAAGGGAGATGTTGGGGTTGGGTGCAGATCATGTGGGAGCT
-0.8715314339002782 CAAAAATCCCATCTCCCCACAATGACCCTTTCTAGGTCACTGCTGCTTTCTCCCACACTTGCAGATTGCTTGCATTTCCCTG
